svm_type c_svc
kernel_type rbf
gamma 0.5
nr_class 2
total_sv 431
rho 0.4147250864775071
label 1 -1
nr_sv 225 206
SV
1.0 2:0.375 
0.0792466904145999 2:0.375 5:0.5 9:0.5 11:0.625 13:0.875 18:0.625 19:0.875 
1.0 3:0.375 
1.0 4:0.5 8:0.375 10:-0.375 
1.0 3:0.5 7:-0.5 14:0.125 
1.0 2:0.75 5:-0.25 9:0.625 
1.0 3:0.5 
1.0 1:0.5 
1.0 4:0.5 
1.0 2:-0.375 4:-0.375 
0.40991302098138166 2:0.75 6:0.875 7:-0.5 
1.0 1:0.5 
1.0 2:0.875 9:-0.875 
0.40697422325623667 4:0.625 9:0.875 11:0.875 14:0.75 20:0.875 25:0.75 26:0.5 
0.36751276217902673 9:0.5 18:0.75 
1.0 8:0.25 13:0.375 14:-0.375 
1.0 6:0.5 
1.0 2:-0.375 3:0.5 
1.0 3:1.0 
1.0 11:0.625 
1.0 1:0.625 
1.0 9:0.625 
1.0 1:0.625 
1.0 1:0.5 2:0.75 3:-0.6 11:-0.625 13:0.625 
1.0 3:0.125 6:-0.625 
1.0 5:-0.625 8:0.875 
1.0 2:-0.5 6:0.125 
1.0 3:0.5 
1.0 2:1.0 4:0.625 11:-0.125 14:-0.5 
1.0 1:0.625 3:-0.5 6:0.875 
0.6560772280308133 4:0.125 8:0.75 9:0.5 13:0.5 17:-0.625 
0.18985805102561037 6:0.375 11:0.125 12:0.375 18:-0.25 20:0.5 23:0.125 25:0.625 
0.6242810225596506 1:0.625 2:0.875 4:0.875 
0.18962137103364785 4:0.375 6:-0.75 12:0.625 13:0.75 16:0.25 
1.0 14:0.625 
0.18250598560799716 11:0.75 16:0.5 21:-0.625 
1.0 6:-0.375 11:0.625 
0.8426814346583962 12:0.25 24:1.0 
1.0 4:0.875 7:-0.5 
1.0 2:0.5 
1.0 2:0.375 
0.3221635957448258 1:0.875 
1.0 9:0.25 15:0.5 
1.0 4:-0.5 10:0.5 
0.28689604632635723 3:0.75 6:0.125 13:0.5 14:0.5 16:0.5 21:0.25 22:0.5 28:0.5 29:0.75 32:0.875 
1.0 2:0.375 6:-0.5 10:0.75 
0.5322529977718258 14:0.5 18:0.775 25:0.5 
0.027949247451193537 3:1.0 5:1.0 
1.0 5:0.5 8:-0.375 14:0.5 20:0.625 24:-0.5 25:0.75 26:0.75 27:-0.625 28:-0.375 
1.0 3:0.5 6:0.5 7:-0.5 
1.0 1:0.875 
1.0 2:0.5 
1.0 4:0.25 
1.0 2:0.25 
1.0 3:0.875 
1.0 5:-0.625 9:0.75 16:0.5 
0.5342463985974932 3:0.875 7:0.875 18:0.625 24:0.625 29:0.5 31:0.875 
1.0 5:0.375 
1.0 5:0.375 
1.0 1:0.375 
1.0 7:0.125 
1.0 2:0.625 
1.0 8:1.0 
0.826531960677357 4:0.625 
1.0 7:0.625 
1.0 11:0.5 
0.22532499264870176 6:1.0 9:0.5 13:1.0 18:0.875 
0.27084966242014963 2:0.625 6:0.625 11:1.0 15:0.625 18:0.125 19:0.5 20:1.0 
1.0 1:-0.375 7:0.75 
1.0 2:-0.875 8:0.75 
1.0 3:0.5 
1.0 3:0.125 6:0.125 8:-0.5 12:0.625 13:0.5 
1.0 12:0.25 
0.11322229283456141 7:0.625 20:0.75 21:0.5 
0.8636739500763719 4:-0.875 12:0.5 15:0.625 16:0.5 23:0.75 28:0.125 29:0.375 40:-0.125 
1.0 6:0.125 7:0.5 
0.17833432944819952 7:0.5 16:0.625 17:0.25 18:0.5 20:0.625 25:0.5 27:0.625 30:0.125 33:0.5 34:0.75 
1.0 2:-0.125 3:-0.625 8:0.125 9:0.375 12:-0.625 14:0.25 16:0.125 17:0.875 21:0.5 25:0.5 
1.0 3:0.5 
1.0 11:0.25 
1.0 4:0.5 
1.0 1:0.5 6:-0.25 
1.0 8:0.125 
1.0 7:-0.875 9:-0.625 
1.0 4:-0.5 7:0.875 
1.0 2:0.875 4:-0.625 
1.0 5:0.5 
1.0 13:0.625 
0.7560172263969955 6:0.75 
1.0 9:0.625 
1.0 4:0.625 
0.698571312708004 11:0.125 12:0.375 16:-0.375 23:0.875 26:0.125 27:0.125 43:0.625 
1.0 1:0.875 
1.0 5:0.5 21:0.75 
1.0 6:0.25 
1.0 1:0.875 
1.0 2:-0.125 3:-0.25 
1.0 5:1.0 
1.0 3:-0.125 4:0.875 6:0.5 8:-0.875 13:0.625 18:0.125 19:0.875 
1.0 5:0.5 
0.24733342541096154 5:0.625 8:0.75 11:0.5 12:0.5 15:0.875 29:0.625 30:0.5 33:0.875 
1.0 2:0.125 
0.48473046354174376 1:0.125 4:0.5 5:0.5 7:0.625 9:0.125 13:0.625 16:0.5 17:-0.75 18:-0.5 23:0.125 
1.0 2:0.125 3:0.125 
1.0 17:-0.125 26:0.75 30:0.5 35:0.875 37:0.5 38:0.125 
1.0 7:0.625 
1.0 7:0.5 
0.5110825729214447 5:0.5 12:0.5 19:0.125 20:0.5 24:0.125 25:0.25 27:0.625 30:0.625 42:0.5 44:0.5 46:0.625 
1.0 2:0.5 
0.3405901036297337 3:0.5 9:0.75 10:0.5 24:0.5 27:0.875 29:0.25 30:0.5 33:0.875 
1.0 8:-0.875 16:0.75 
1.0 1:0.875 
1.0 4:-0.5 14:0.125 15:0.375 
1.0 2:0.625 
1.0 3:0.375 
1.0 5:-0.125 8:0.625 
1.0 5:0.625 9:-0.625 10:-0.375 
1.0 9:0.5 
0.533027671582766 15:0.625 20:0.625 
1.0 8:0.5 11:0.5 14:-0.5 
1.0 6:0.875 
1.0 2:0.625 
1.0 2:0.5 
1.0 2:0.375 6:-0.875 
1.0 1:0.5 5:-0.5 
1.0 21:0.125 22:0.125 
1.0 6:-0.5 12:0.125 13:0.375 
1.0 3:-0.625 6:0.5 
1.0 11:0.5 
1.0 7:-0.375 13:-0.625 19:0.625 20:0.625 22:0.5 
0.7038650786278986 3:0.625 8:-0.125 14:0.875 20:0.75 22:-0.5 25:-0.75 
1.0 1:0.625 
1.0 6:0.625 
1.0 1:0.625 
1.0 1:0.625 
1.0 2:0.625 
1.0 3:0.5 
1.0 5:0.75 19:-0.5 
1.0 4:0.625 
1.0 8:0.625 
1.0 4:-0.125 8:0.625 
1.0 7:0.625 14:-0.75 
1.0 6:0.375 10:0.125 
1.0 4:0.625 
1.0 8:0.75 
1.0 2:0.625 
1.0 11:0.5 
0.2851004311977775 7:0.625 14:0.625 19:0.875 
1.0 9:-0.75 
1.0 4:0.875 
1.0 4:0.625 9:-0.5 12:0.625 
1.0 5:0.375 7:-0.5 10:0.625 
1.0 5:1.0 
1.0 14:0.125 15:0.125 
1.0 1:0.6 
1.0 6:0.625 11:-0.5 12:-0.875 
1.0 4:-0.5 6:0.875 8:0.5 
0.7940175757008676 3:0.625 
1.0 4:-0.5 9:0.75 
1.0 9:0.625 
1.0 3:-0.5 8:0.125 9:0.5 
1.0 4:1.0 
1.0 2:0.625 4:0.625 6:-0.875 
1.0 6:-0.5 
1.0 3:0.125 
1.0 3:0.875 
0.13372485146418345 6:1.0 11:0.625 
1.0 9:0.25 
1.0 9:0.25 
1.0 4:0.125 
1.0 16:0.125 
1.0 23:0.875 
1.0 16:0.125 
0.5681252216907096 13:0.75 
1.0 6:0.25 
0.11912338374422043 9:0.125 14:0.125 19:0.875 23:0.5 24:0.75 
1.0 4:0.875 
0.65985964145472 13:0.375 18:0.125 20:0.5 
1.0 10:-0.875 13:0.5 16:0.5 26:0.625 27:0.5 
0.7044479049957264 14:0.75 
1.0 28:0.125 29:0.125 32:-0.625 
0.8044751982310409 3:0.5 4:0.875 8:0.125 9:0.0 13:-0.25 16:-0.5 24:0.875 28:0.5 
0.9496844772482449 2:0.5 3:0.5 6:-0.5 7:0.5 9:-0.25 10:-0.5 11:0.5 15:0.5 
1.0 10:0.5 
1.0 5:0.625 10:-0.625 13:0.5 
0.3737102549621014 4:0.875 7:0.75 15:0.625 17:0.625 22:0.5 23:0.875 24:-0.6 
0.24398277360300447 2:0.5 3:0.5 5:0.125 6:0.5 9:-0.625 
0.5696199907784323 12:0.75 
0.6778364042551742 2:0.125 3:0.0 6:-0.25 15:0.0 17:0.75 
1.0 2:0.625 4:-0.75 8:0.5 
0.8103786289663522 6:0.625 21:0.125 22:0.625 
1.0 7:-0.625 14:0.125 19:0.5 28:0.125 29:0.75 30:0.375 37:-0.375 42:-0.75 
1.0 26:0.6 
1.0 4:0.5 10:-0.25 14:0.375 
1.0 11:-0.75 
1.0 6:0.375 8:0.5 9:0.5 17:-0.375 18:-0.625 19:0.25 21:0.5 31:0.875 33:0.5 34:0.5 38:0.75 42:0.5 
0.5362112909939952 2:0.5 3:0.5 7:0.375 10:0.875 15:0.25 21:0.75 29:0.125 33:0.75 37:0.875 
1.0 9:0.125 10:0.375 
1.0 1:0.5 
0.4342708549674236 1:0.625 8:0.875 15:0.125 17:-0.625 23:0.875 24:0.5 28:0.625 
1.0 1:0.625 
1.0 11:0.875 
1.0 2:0.125 25:-0.625 27:0.5 
0.9327425769220099 1:0.125 4:0.5 5:0.5 6:0.625 8:0.125 12:0.625 15:0.5 16:-0.75 17:-0.5 
0.5131513248644239 4:0.5 15:-0.5 17:0.125 21:0.5 22:0.5 23:0.375 29:0.625 
1.0 3:0.125 7:-0.125 9:0.125 
1.0 3:0.5 
0.8677282818364283 6:1.0 
1.0 7:0.125 14:0.125 
1.0 4:0.125 
1.0 9:0.5 
0.45028515810971736 4:0.875 
1.0 6:0.125 
0.33735670591562755 11:1.0 14:1.0 
1.0 15:-0.5 17:0.625 20:-0.5 
1.0 9:0.625 
0.37284183199509036 2:1.0 
1.0 5:0.375 
1.0 1:0.625 5:-0.5 6:-0.125 7:-0.5 
1.0 17:0.5 20:0.125 21:0.75 24:0.5 25:0.75 26:-0.5 33:-0.25 39:-0.75 
1.0 4:0.5 6:0.375 7:-0.375 
1.0 2:0.625 7:-0.625 
1.0 2:0.125 6:-0.625 8:0.625 13:0.125 14:0.375 
1.0 3:0.125 4:0.125 5:0.5 9:-0.625 11:-0.25 
1.0 2:0.625 
-1.0 20:-0.375 31:0.5 
-1.0 4:-0.375 7:-0.5 8:0.125 12:0.5 14:0.5 
-1.0 1:0.625 5:0.625 6:0.375 21:0.75 
-1.0 3:0.5 9:-0.875 
-1.0 4:-0.25 
-1.0 1:0.625 2:0.625 5:-0.25 
-1.0 5:-0.25 
-1.0 1:0.625 8:-0.75 
-1.0 1:0.625 2:0.625 4:0.625 
-1.0 8:0.625 
-1.0 1:-0.25 10:0.125 
-1.0 4:-0.125 5:0.25 
-1.0 9:0.75 
-1.0 2:0.5 
-1.0 1:0.625 8:-0.375 18:0.625 
-1.0 2:-0.5 3:0.5 
-1.0 4:0.625 6:0.25 
-1.0 1:0.125 3:0.875 6:0.375 
-1.0 6:-0.25 
-1.0 3:-0.125 4:0.625 
-1.0 4:0.875 
-1.0 6:0.125 7:-0.625 9:0.125 
-1.0 2:0.625 4:-0.125 14:-0.125 
-1.0 2:0.5 11:-0.25 
-1.0 2:0.375 4:0.625 6:0.125 13:0.125 14:-0.75 18:0.125 19:0.375 21:0.5 
-1.0 2:0.25 4:0.625 5:0.5 
-1.0 1:0.625 4:-0.375 
-1.0 2:0.625 9:0.625 16:-0.5 
-1.0 6:0.125 8:-0.375 
-1.0 2:0.625 5:0.75 11:-0.5 19:0.65 
-1.0 1:0.625 4:-0.25 
-1.0 4:-0.375 
-1.0 6:-0.5 7:0.125 19:-0.75 22:0.125 23:0.375 
-1.0 2:0.75 6:0.5 10:0.625 
-1.0 5:1.0 10:-0.75 
-1.0 2:-0.25 9:0.5 
-1.0 2:-0.125 4:0.625 
-1.0 4:0.625 
-1.0 1:0.625 5:0.625 
-1.0 4:0.125 5:0.5 
-1.0 3:-0.125 
-1.0 8:-0.375 13:0.375 
-1.0 2:-0.375 
-1.0 13:0.5 15:-0.5 22:0.75 
-0.8494502371990974 4:-0.5 6:0.125 7:0.625 11:0.625 16:-0.75 
-1.0 3:-0.5 8:0.5 9:0.5 
-1.0 8:-0.125 
-1.0 5:-0.5 6:0.5 7:-0.125 
-1.0 4:0.625 10:-0.75 
-1.0 4:0.75 9:-0.625 
-1.0 3:0.5 5:0.5 8:0.5 10:0.125 15:-0.5 
-1.0 3:0.625 
-1.0 1:0.625 6:-0.375 
-1.0 3:0.625 
-1.0 1:0.125 9:0.625 12:-0.625 
-1.0 1:0.625 3:-0.625 
-1.0 11:0.5 
-1.0 4:0.375 9:-0.5 18:-0.5 
-1.0 9:-0.5 
-1.0 7:0.125 9:-0.625 
-1.0 17:-0.625 18:0.6 19:0.625 
-1.0 5:0.5 9:-0.625 
-1.0 1:0.875 4:0.625 7:0.5 11:0.5 22:-0.75 
-1.0 1:0.625 7:-0.625 
-1.0 6:0.125 9:-0.125 14:-0.625 16:0.125 
-1.0 1:0.625 8:0.5 9:-0.625 
-1.0 6:1.0 8:0.875 17:0.125 22:-0.125 
-0.3532624764145532 1:0.625 7:-0.625 12:-0.5 15:-0.5 
-0.6556296835502583 8:-0.125 11:-0.75 
-1.0 3:0.875 12:0.625 14:0.125 16:-0.375 19:0.75 23:-0.5 26:-0.625 30:0.375 33:0.5 
-1.0 1:-0.25 9:0.25 
-1.0 1:-0.5 3:0.625 4:0.625 6:0.5 9:0.5 11:-0.5 
-1.0 8:0.875 
-1.0 4:0.5 6:0.25 
-1.0 6:-0.5 
-1.0 5:0.5 8:0.25 16:-0.75 
-1.0 6:-0.25 
-1.0 3:-0.25 
-1.0 6:-0.125 
-1.0 4:-0.125 8:0.5 10:-0.375 
-1.0 5:0.5 8:-0.625 
-1.0 2:-0.25 
-1.0 4:0.75 7:-0.25 11:0.625 12:-0.5 14:-0.25 
-1.0 8:0.625 
-1.0 1:0.875 3:-0.75 
-1.0 6:-0.75 11:0.875 14:0.125 
-1.0 2:-0.5 
-1.0 4:0.125 5:-0.125 9:0.5 
-1.0 9:0.625 11:0.5 12:0.625 
-1.0 7:0.125 9:0.625 14:-0.375 
-0.2024278512285386 5:-0.375 
-0.366456809155182 1:-0.5 12:0.125 17:-0.625 20:0.875 
-1.0 3:0.5 
-1.0 3:-0.125 4:-0.25 
-1.0 4:0.5 6:0.5 8:0.5 9:0.5 10:-0.75 
-1.0 1:-0.375 
-0.650064034816363 3:0.5 4:0.625 6:-0.6 12:-0.625 13:-0.625 
-1.0 2:0.625 8:-0.5 10:0.0 24:-0.625 
-1.0 1:-0.5 4:0.5 
-1.0 2:0.625 7:-0.5 8:0.75 
-1.0 2:-0.125 7:-0.625 8:0.75 
-1.0 2:0.75 5:-0.625 
-1.0 4:0.375 
-1.0 6:-0.25 11:-0.25 
-1.0 1:0.625 5:-0.125 6:-0.5 
-1.0 5:0.625 6:0.25 10:-0.125 16:-0.5 
-1.0 2:-0.5 
-0.7518134714967275 6:-0.625 
-1.0 3:-0.5 7:0.5 
-1.0 3:-0.25 5:0.0 
-1.0 6:0.5 11:0.5 12:0.125 14:-0.25 
-1.0 8:0.625 
-1.0 3:0.5 11:0.375 12:0.625 16:-0.25 20:0.125 25:0.375 
-1.0 3:0.625 4:-0.75 
-1.0 3:0.5 
-0.4932989444737164 3:-0.75 6:0.5 
-1.0 6:0.375 7:0.625 
-0.32934496720767703 2:0.75 3:-0.625 9:-0.625 
-1.0 20:0.625 
-1.0 2:0.625 
-1.0 3:0.5 11:0.625 12:0.5 14:0.625 17:-1.0 
-1.0 3:-0.375 
-1.0 6:0.5 15:0.5 
-1.0 6:-0.5 7:-0.625 13:0.5 17:0.375 
-1.0 5:0.625 11:-0.5 17:-0.625 
-1.0 2:-0.75 6:0.5 
-1.0 4:0.5 5:-0.625 
-1.0 1:0.5 9:0.5 10:0.625 13:0.5 
-1.0 1:0.625 3:0.5 9:0.125 11:-0.75 
-1.0 5:0.625 6:-0.75 
-1.0 4:-0.5 7:0.125 
-0.7045647442269956 4:-0.5 5:-0.625 8:0.75 
-1.0 9:-0.5 12:0.625 30:-0.5 31:0.5 
-1.0 13:-0.5 
-1.0 7:0.125 8:-0.5 
-1.0 1:0.625 3:0.375 8:-0.5 
-1.0 7:-0.375 
-1.0 6:-0.25 
-1.0 2:0.875 6:-0.5 15:0.125 
-1.0 3:-0.625 6:0.75 9:0.5 12:-0.75 13:0.5 
-1.0 4:0.125 5:-0.5 6:0.625 
-1.0 2:0.625 5:0.75 7:-0.125 
-1.0 3:0.75 6:0.75 13:-0.5 25:0.25 
-0.5110825729214447 1:0.5 2:0.625 6:-0.5 7:-0.875 9:0.125 18:0.125 20:-0.625 
-1.0 2:0.5 4:0.875 6:-0.5 
-1.0 8:0.5 17:-0.375 
-1.0 5:-0.25 
-1.0 10:-0.5 
-1.0 1:0.5 3:-0.5 
-0.39792034867386517 7:-0.875 
-1.0 2:-0.5 
-1.0 31:-0.5 
-1.0 4:0.625 5:0.5 18:-0.75 21:0.25 30:0.75 
-1.0 3:0.375 7:0.5 
-1.0 1:-0.25 4:-0.125 
-1.0 9:0.5 11:0.5 12:-0.5 
-1.0 2:0.625 5:-0.625 
-1.0 2:0.5 3:0.5 13:0.625 14:0.125 
-1.0 6:0.625 12:-0.375 17:0.25 22:0.125 24:0.5 33:0.25 
-1.0 1:-0.25 
-1.0 5:-0.5 13:0.625 
-1.0 1:0.625 2:0.625 6:-0.5 
-0.9869088281644766 2:0.625 4:-0.25 6:0.375 13:-0.5 14:-0.5 15:-0.625 
-1.0 3:0.625 6:-0.625 
-1.0 3:0.375 
-1.0 2:0.5 8:1.0 9:0.5 10:-0.5 
-1.0 2:0.625 3:0.5 14:0.5 16:0.125 17:-0.375 18:-0.25 21:0.375 
-1.0 9:0.125 
-1.0 2:0.625 
-1.0 6:0.75 
-1.0 7:-0.625 
-1.0 7:-0.5 
-1.0 10:-0.5 
-1.0 1:0.625 6:-0.625 
-0.2526978352784235 10:-0.625 
-1.0 4:-0.25 
-1.0 1:0.625 5:-0.625 
-1.0 2:0.625 4:0.625 
-1.0 5:-0.375 6:0.125 
-1.0 1:-0.625 3:-0.375 7:0.75 
-1.0 1:-0.25 
-1.0 3:0.725 10:0.125 11:-0.5 
-1.0 8:-0.125 
-1.0 2:0.5 3:-0.625 
-1.0 2:-0.75 12:0.125 14:0.875 24:-0.75 
-1.0 4:-0.25 8:0.125 
-1.0 1:0.875 4:0.875 5:-0.25 
-1.0 7:0.125 9:-0.5 
-1.0 2:-0.375 4:0.25 5:1.0 7:0.375 11:0.625 13:0.625 24:0.625 
-1.0 2:0.25 4:-0.625 9:0.625 10:0.5 13:0.125 
-1.0 6:0.125 7:0.5 9:-0.25 12:-0.75 
-1.0 5:0.5 6:0.625 7:0.5 
-0.8859129674117054 1:-0.25 4:-0.375 11:0.625 13:-0.375 
-1.0 6:-0.375 15:0.25 
-1.0 2:0.375 4:-0.625 
-1.0 4:0.625 12:-0.125 18:-0.625 
-1.0 4:0.125 6:0.375 10:0.625 14:0.5 17:-0.5 18:-0.875 
-1.0 1:0.5 2:0.625 7:-0.125 15:0.625 19:-0.625 23:0.0 
-1.0 4:-0.5 
-1.0 3:0.875 7:0.125 8:-0.25 
-1.0 4:-0.25 
-1.0 3:-0.125 6:0.25 8:-0.5 9:-0.125 10:0.125 11:0.375 
-1.0 3:-0.25 
-1.0 4:-0.5 
-0.15317411024219252 2:-0.5 5:-0.375 8:0.875 12:-0.625 
-1.0 1:0.5 4:0.125 5:-0.5 
